{
  "w": [
    -0.00041681324364617467,
    0.000005644191787723685,
    -0.00005536703247344121,
    -0.023137042298913002,
    -0.0000024788789687590906,
    -0.0037985602393746376,
    -0.0015774136409163475,
    0.0010879008332267404,
    0.00449033547192812,
    -0.0010845725191757083,
    0.00044834695290774107,
    -4.144833098962408e-7,
    0.06842090934515,
    -0.0022761081345379353,
    -0.0017461888492107391,
    0.02406344749033451,
    0.012200254946947098,
    -6.371904532898043e-7,
    -0.014928052201867104,
    -0.025716202333569527,
    -0.002443605102598667,
    0.001669134944677353,
    0.007147738244384527,
    -0.005875017493963242,
    0.029126424342393875,
    -0.029360726475715637,
    0.00002006143404287286,
    -0.0002917862148024142,
    -0.03210486099123955,
    0.016229519620537758,
    -0.008410504087805748,
    -0.0017348058754578233,
    -0.03205175697803497,
    -0.00001270786833629245,
    -0.008827326819300652,
    -0.008589695207774639,
    -0.005053133238106966,
    0.013684024102985859,
    0.0034938668832182884,
    0.000678352196700871,
    0.011526997201144695,
    -0.019588397815823555,
    0.03866412490606308,
    0.00015950544911902398,
    -0.0004231594502925873,
    -2.1136787609066232e-7,
    -0.000009551601579005364,
    0.0073639205656945705,
    -0.01311361975967884,
    0.005218018312007189,
    -0.00012716218770947307,
    0.013560689054429531,
    0.01974235102534294,
    0.027103053405880928,
    0.0023298331070691347,
    0.000006160772500152234,
    0.04837040230631828,
    -0.0003797569661401212,
    0.000004703473678091541,
    -0.012129857204854488,
    -0.02089964970946312,
    -0.006273025646805763,
    0.05679168924689293,
    -0.0020984457805752754,
    -0.006761453114449978,
    -6.604286681977101e-7,
    0.01964752748608589,
    -0.09627258777618408,
    0.007511151488870382,
    -0.0036896008532494307,
    0.006222718860954046,
    0.021905526518821716,
    -0.000008821246410661843,
    -0.000401521596359089,
    -0.000014961582564865239,
    0.0007898756302893162,
    -0.013467061333358288,
    -0.006547226570546627,
    0.0099038602784276,
    -0.006658400874584913,
    0.00012065377813996747,
    0.016259992495179176,
    -0.00808838102966547,
    0.00625426834449172,
    -0.020249759778380394,
    -0.037413790822029114,
    -0.004571855999529362,
    0.009982501156628132,
    -0.004162533674389124,
    0.005088096484541893,
    -0.002858854364603758,
    -0.000625584099907428,
    -0.0019684797152876854,
    0.00006136504089226946,
    0.004642289597541094,
    0.006697351578623056,
    0.04257657006382942,
    0.004951395560055971,
    -0.03781953454017639,
    -0.020661305636167526,
    -0.0007011549314484,
    0.0003529739915393293,
    -0.010178362019360065,
    0.0441790409386158,
    -0.0011939461110159755,
    0.0023024065885692835,
    -0.0012331065954640508,
    4.033911409351276e-7,
    -0.0036471043713390827,
    -0.02586144208908081,
    0.0043127406388521194,
    0.002410395070910454,
    0.017849627882242203,
    0.013616573065519333,
    0.020489327609539032,
    0.0002899527898989618,
    0.018922502174973488,
    0.000038639238482574,
    -0.013035453855991364,
    -0.09620311856269836,
    0.02210981398820877,
    0.01926341839134693,
    -0.013527109287679195,
    0.04543420299887657,
    -0.0006591074052266777,
    0.00632471963763237,
    -0.03211957588791847,
    -0.013118128292262554,
    0.01003655418753624,
    -0.002643953077495098,
    -0.000003234858922951389,
    0.002331326249986887,
    -0.000018713668396230787,
    -0.058048464357852936,
    -0.0028856636490672827,
    -0.004352024756371975,
    0.0033405732829123735,
    -0.011002845130860806,
    -0.015365410596132278,
    0.0009791370248422027,
    0.03749935328960419,
    0.011911069042980671,
    0.00003792242205236107,
    -0.005237668287009001,
    -0.0008425641572102904,
    0.00021088405628688633,
    0.0029589447658509016,
    0.025148238986730576,
    0.006662566680461168,
    -0.007748437579721212,
    -4.864473339694086e-7,
    0.0012117702281102538,
    0.0000059562548813119065,
    -0.013548423536121845,
    -0.013245406560599804,
    0.000514392158947885,
    -0.07444988191127777,
    -0.04731757193803787,
    -0.0015116269933059812,
    0.007631403394043446,
    0.015301665291190147,
    2.7004193725588266e-7,
    0.039705537259578705,
    -0.007721376605331898,
    0.059412434697151184,
    0.0023599944543093443,
    -0.000025119930796790868,
    -0.000004885079306404805,
    0.002889006631448865,
    0.0004995312192477286,
    -0.023121727630496025,
    0.025878310203552246,
    0.009421059861779213,
    0.005322256591171026,
    0.008558078669011593,
    -0.0019643858540803194,
    0.013353761285543442,
    0.005904810503125191,
    0.0016219164244830608,
    -0.000014497200936602894,
    0.0036994265392422676,
    -0.013819165527820587,
    0.040011703968048096,
    0.05515017360448837,
    -0.006806997582316399,
    -0.0012249434366822243,
    -0.03133663535118103,
    -0.0003792988136410713,
    -0.0000035870350529876305,
    -0.05045638978481293,
    -0.0024380432441830635,
    0.027845120057463646,
    -0.011175758205354214,
    -0.044331055134534836,
    0.01593768037855625,
    0.00037394388346001506,
    -0.0013659935211762786,
    0.000915022159460932,
    -0.00240717944689095,
    0.000337376375682652,
    1.1011611888989137e-7,
    -0.00043773200013674796,
    -0.0004064449458383024,
    0.005204493645578623,
    -0.0011631031520664692,
    0.00949250627309084,
    -0.00639639887958765,
    -0.0030067546758800745,
    0.007307153660804033,
    -0.00020427109848242253,
    -0.0008975506643764675,
    -0.00002778162161121145,
    0.008451511152088642,
    0.00000226171187023283,
    0.0018900437280535698,
    -0.011240223422646523,
    -0.00019039445032831281,
    0.0000016020768498492544,
    0.00022458726016338915,
    0.025149120017886162,
    0.003593496046960354,
    -0.006973439361900091,
    0.02388583868741989,
    0.05103312060236931,
    -0.0322171188890934,
    0.032499924302101135,
    0.0024674413725733757,
    -0.05014628544449806,
    0.0029011559672653675,
    0.000009419015441380907,
    0.006408738903701305,
    -0.0033168653026223183,
    0.041983481496572495,
    -5.839205385882451e-8,
    9.851701179286465e-7,
    0.00021843661670573056,
    -0.025842713192105293,
    0.006653361953794956,
    0.007601470220834017,
    -0.01569443568587303,
    -0.0007819371530786157,
    -0.003894238267093897,
    0.020966580137610435,
    0.030866548418998718,
    0.011514484882354736,
    -0.012858869507908821,
    -0.014550318941473961,
    -0.0000026113964395335643,
    0.002661812352016568,
    -0.0024634883739054203,
    0.0010890709236264229,
    0.05010886490345001,
    0.014743153937160969,
    -0.030521661043167114,
    -0.0000019776994122366887,
    -0.01537419855594635,
    0.0012032192898914218,
    -0.01057740394026041,
    0.02485474944114685,
    0.002484230324625969,
    -0.0008552715880796313,
    0.008736316114664078,
    0.005951792001724243,
    -0.024034729227423668,
    -0.006780324503779411,
    -0.0000034923109524243046,
    -4.935596962241107e-7,
    -0.000009510999007034115,
    1.3049543667875696e-7,
    0.04087623581290245,
    0.011768672615289688,
    0.01928759180009365,
    0.0000953309572651051,
    0.0026914149057120085,
    -0.02936115302145481,
    -4.289982484806387e-7,
    0.009318078868091106,
    -0.002390084555372596,
    0.00004666321910917759,
    -0.018758514896035194,
    -0.00002198169931943994,
    -0.0008432913455180824,
    0.030645234510302544,
    -0.014539920724928379,
    -0.006752669345587492,
    -0.00044874573359265924,
    0.01380110066384077,
    0.05542019382119179,
    -0.03368241712450981,
    -0.000022065196390030906,
    -0.001354639302007854,
    -0.000001306814397139533,
    -0.010393277741968632,
    0.03140037879347801,
    -0.022695595398545265,
    -0.021294541656970978,
    -0.04221980646252632,
    -0.00010145419219043106,
    -0.0014872439205646515,
    -0.000010967505659209564,
    -0.0008870609453879297,
    -0.004301426000893116,
    -0.0000060326601669657975,
    -0.008509406819939613,
    0.000305517838569358,
    0.0195957999676466,
    -0.0030282072257250547,
    -0.015919674187898636,
    -0.0004639773105736822,
    0.00469915010035038,
    0.004941059276461601,
    0.0018368108430877328,
    -0.0071685221046209335,
    -0.001663316274061799,
    -0.0396459735929966,
    -0.023164795711636543,
    -0.00594525458291173,
    -0.018545623868703842,
    -0.008018705062568188,
    0.005096097476780415,
    -5.687620614480693e-7,
    0.007072221953421831,
    -8.805270113043662e-7,
    0.0006787124439142644,
    -0.004281953908503056,
    -0.0000029474713301169686,
    0.00527624087408185,
    -0.000009312563634011894,
    0.03923725709319115,
    0.008296141400933266,
    -0.000002456209131196374,
    -0.00416554044932127,
    0.015071739442646503,
    0.01645050197839737,
    4.4581199176718656e-7,
    0.0044084456749260426,
    0.000002023528168138,
    -0.000003961439233535202,
    -0.000008404645086557139,
    0.012177357450127602,
    0.0003649037971626967,
    -0.0004301349399611354,
    -0.045360442250967026,
    0.0052213529124855995,
    0.010190124623477459,
    0.005007432773709297,
    -0.0029599869158118963,
    3.6296540883995476e-8,
    -4.704992875304015e-7,
    0.026153944432735443,
    -0.00643110740929842,
    -0.007208135910332203,
    0.017006298527121544,
    -0.01721845380961895,
    -0.007820190861821175,
    0.0004258151166141033,
    -0.005787375383079052,
    -0.0000017192143104693969,
    -0.03172388672828674,
    0.000052512510592350736,
    -0.00015864499437157065,
    0.047685861587524414,
    0.006247243378311396,
    0.00038469696301035583,
    -0.00026302694459445775,
    0.0025615154299885035,
    0.0013621648540720344,
    0.00044509756844490767,
    0.026931464672088623,
    -0.049793075770139694,
    -0.01589157059788704,
    -0.003354293294250965,
    0.0076713114976882935,
    -0.004577026702463627,
    -0.003542369930073619,
    0.006176780443638563,
    0.0001628690370125696,
    0.000044877098844153807,
    0.012005318887531757,
    -0.0020326650701463223,
    -0.000001727004928397946,
    0.03961309418082237,
    -0.0030328016728162766,
    -0.008559702895581722
  ],
  "b": -0.07138728350400925,
  "lambda": 1
}